{
  "activationFunctionFactory": {
    "activationFunctionMap": {
      "TANH": {
        "type": "basicneuralnetwork.activationfunctions.TanhActivationFunction",
        "data": {}
      },
      "RELU": {
        "type": "basicneuralnetwork.activationfunctions.ReLuActivationFunction",
        "data": {}
      },
      "SIGMOID": {
        "type": "basicneuralnetwork.activationfunctions.SigmoidActivationFunction",
        "data": {}
      }
    }
  },
  "random": {
    "seed": 232193441890733,
    "nextNextGaussian": -0.5385132964374157,
    "haveNextNextGaussian": false
  },
  "inputNodes": 17,
  "hiddenLayers": 3,
  "hiddenNodes": 16,
  "outputNodes": 2,
  "weights": [
    {
      "mat": {
        "type": "org.ejml.data.DMatrixRMaj",
        "data": {
          "data": [
            -4.213068296290733,
            2.354079037893687,
            -1.2939936640882135,
            -1.2064021567633927,
            2.1101849974458515,
            -4.783971514622467,
            3.17146678806359,
            -1.7049707054521441,
            3.3896629884531304,
            2.529720155410819,
            1.6145045117987018,
            -5.636011169117126,
            5.465150692653067,
            2.2622363037489768,
            0.6165718241736862,
            -2.976062899223493,
            4.9593972322125595,
            -2.548242566394456,
            1.082248450069907,
            3.001236155416538,
            2.9758206266820255,
            2.8196543318558245,
            1.4735517887113634,
            -7.013958198721755,
            -2.617733111817067,
            -2.80463730358205,
            3.6478085764895947,
            -3.570309246844244,
            -0.05715836543702826,
            -1.2384885898915723,
            2.772111879021569,
            -1.9245445171962272,
            -3.954804022867809,
            -0.2749647186297634,
            -3.5228195985762607,
            -0.5299084461532451,
            4.589764035639488,
            2.3712716999318375,
            -2.504631563202313,
            0.9007151768049564,
            -5.169253019593775,
            -1.9763216830841164,
            0.8512626584590866,
            -3.1446958972624737,
            1.5431426013043055,
            -0.3112907284014443,
            0.7957674223062455,
            -0.9284967558271043,
            -1.8949689206221663,
            -3.076911664905159,
            1.5496559627774351,
            -2.1191958439370504,
            3.094980118960878,
            -2.434209235083345,
            -0.04323507986922348,
            -3.3934054432172616,
            3.3313001237482505,
            5.485133340085353,
            -8.004188214000816,
            -9.002204201804192,
            -3.8582732583946724,
            -6.296985431338504,
            -0.9603703655506503,
            2.1146545673275123,
            0.023097480003791304,
            -3.4341616423871604,
            -0.8890198198795828,
            6.459377253042591,
            -8.164365168707382,
            -1.7576683065109167,
            -2.096876870007876,
            -2.6574800881926066,
            4.121883583534068,
            6.0666449623683265,
            -1.4579133035623233,
            1.9771074447455819,
            -0.8681818969942994,
            2.6174904698760173,
            1.8028538369514764,
            2.1825505946301424,
            1.4489246027831004,
            -3.8675408905752846,
            -1.749532492143621,
            -1.852287064212032,
            1.144100928460843,
            -0.9040771004906011,
            4.139720421934412,
            5.93608446456629,
            -4.933162377796341,
            0.8638431527662995,
            -6.541964360673407,
            -1.569964723717515,
            1.5675428360655574,
            3.5534053985919702,
            -5.518535384961933,
            -8.542861626055771,
            3.021417191842047,
            -4.2281230865436585,
            -1.6113947930103556,
            -6.89486344743175,
            6.295997275621906,
            3.8719431711075725,
            4.046612512707582,
            2.24536355192494,
            2.685821003708374,
            -0.9834117688101518,
            3.320153584259752,
            -6.467880910603267,
            1.1480453637400103,
            0.773617591764721,
            -5.594353444294391,
            3.8936638616445465,
            1.5894768779265671,
            -0.4927820205663332,
            2.581586919859978,
            -2.006930051843074,
            -4.01028583666247,
            0.3751322638896546,
            0.8127773754058594,
            -4.612375937942652,
            -2.279464246600538,
            0.6392268608220099,
            4.604858193108207,
            2.218888791727279,
            -3.1727704440189575,
            -0.7124420232767036,
            0.40826844440890975,
            -1.3549391357132867,
            -5.784269996204908,
            2.288124282300727,
            -1.7513795956538152,
            -6.6029392064827075,
            -0.6804392095628794,
            -4.074787315734009,
            -3.3053344522981702,
            8.545986156689352,
            -1.2410700971841389,
            -6.294079172110536,
            -0.586461552802638,
            2.571021310439682,
            -7.987387282730528,
            -1.2204385980575703,
            2.572381923619168,
            0.0757491980604813,
            2.2039225161074083,
            3.8390338122797547,
            5.687217051763205,
            3.333238269176579,
            -2.3782283691544563,
            4.609277166617612,
            -0.925605762721337,
            -5.708915483199061,
            4.098632061491629,
            0.09669984466480169,
            4.065286019081697,
            -6.96577143490901,
            -4.5166395544490365,
            6.4928282028997035,
            -13.668392424249792,
            -4.562829149680683,
            2.812761156737955,
            2.7846361613325294,
            -0.262004852886839,
            0.5935604997303447,
            0.6876164213008641,
            0.8793835050809732,
            3.891535132976994,
            2.6178684740538762,
            -0.8127134899274799,
            1.8519365339295093,
            -1.1435077804135423,
            -0.1735062865710436,
            0.7218471559860118,
            2.226498996490222,
            1.784089840808133,
            2.5068302108799028,
            5.487711547887471,
            -0.3368974408289571,
            -0.5652637362109577,
            3.5424208811377453,
            1.5386034965792632,
            3.030863201265787,
            -6.653466021104028,
            -5.090748561139568,
            5.220597197975369,
            -4.912863774284816,
            7.092898726593503,
            -0.7206051397184274,
            2.0430174746229954,
            3.7470554161531218,
            -1.0173505114493806,
            -5.197626784789609,
            -2.622903159147426,
            -4.267913076394632,
            1.3752700434729195,
            1.8241970310274092,
            -0.8596924059540043,
            3.8694704545594316,
            -2.572399505779058,
            1.3706720705321458,
            -0.6902479116021946,
            -4.782656504399143,
            2.2822329004261777,
            -4.475742713313276,
            5.436808258482109,
            4.269871899211298,
            0.6593912647161018,
            9.487525507808018,
            -1.758761272920185,
            0.697096593344756,
            2.247663654099937,
            -6.727418906187059,
            -0.5053532010273128,
            -3.708278474360218,
            2.3076435689662653,
            -3.7547966270106485,
            3.5649141001305416,
            -0.03418871215562788,
            0.8328180307443236,
            6.159058123024565,
            3.3073212994053622,
            -3.226360538070282,
            -5.720991014463486,
            6.382080137703931,
            5.25268229298637,
            -4.693733192755337,
            4.031953177491965,
            -0.019417476124391486,
            -2.9323042140259736,
            3.202880418930138,
            1.5569676355840842,
            4.674972528344162,
            -0.9140637153124657,
            -0.5043180453376619,
            -2.3693207633277416,
            5.968250319718267,
            -0.552356486331823,
            -4.087404459477657,
            -0.282394073994971,
            6.77035698375454,
            -8.695329996386935,
            -1.596770616819741,
            -0.5131771036713111,
            2.4629542195256175,
            1.3330096415042068,
            3.1599581847962446,
            2.768097954230188,
            3.2866853549106034,
            -0.6521097514919417,
            8.83952926202505,
            3.840977967466515,
            3.3863984622486134,
            8.69427791134323,
            4.027671903535381,
            6.652835379180337,
            -3.6255504969960324,
            -1.3676362895989775,
            -2.6571488524217473,
            2.7575153142802313,
            -0.31675761287703075,
            7.248256495210217,
            -2.795040068684451,
            -10.163429198282055,
            -3.3841763530287934,
            0.5316305539227215,
            1.9450025079187072,
            -6.1233283637205576,
            5.274495369288079,
            0.5649670320431353,
            -0.1730513403353231,
            -7.6885631117764826,
            -5.988619978469626
          ],
          "numRows": 16,
          "numCols": 17
        }
      },
      "ops": {
        "type": "org.ejml.simple.ops.SimpleOperations_DDRM",
        "data": {}
      }
    },
    {
      "mat": {
        "type": "org.ejml.data.DMatrixRMaj",
        "data": {
          "data": [
            -3.7495592030641056,
            -3.29106582862942,
            -2.7926804950921427,
            -3.1019741604306956,
            0.7962646812568194,
            0.39368180437992417,
            0.49109444837648697,
            3.85411624661873,
            6.09859601092509,
            2.487928627815696,
            4.326813120572712,
            0.32138584592554054,
            5.345201093969654,
            2.3183236668286886,
            0.7321154947228279,
            2.5136390368936317,
            -1.9376446001930074,
            1.9476474931105707,
            -0.15424009662130878,
            5.7314724036949665,
            -3.2847237295994827,
            -2.995457306854478,
            -4.849094995804301,
            -5.405311790093268,
            0.2414320407055598,
            -5.0931335893632195,
            -1.9487687422894189,
            -1.2275900947374807,
            0.2028560009752826,
            -3.069975804877185,
            -5.784667527268894,
            0.0068602657955461055,
            5.199542378101447,
            2.600995227627532,
            -6.6854851035049085,
            -1.01277648802981,
            2.0464508769233136,
            2.1989448136243768,
            -6.790313351581256,
            0.9073619193489905,
            -2.353163018359973,
            -1.8432179029718554,
            3.1282989320302272,
            -1.5576153791376557,
            -1.2503417129864827,
            -4.698852021778498,
            4.172847213635382,
            0.29678644709899865,
            2.8598358097685384,
            3.778230817197214,
            9.75258986726206,
            -2.152007978883506,
            0.8105509128189681,
            -1.5022850488158008,
            -3.6178729184891143,
            1.8277452975317525,
            -0.49839454917657133,
            -0.6766720306492264,
            0.16339192980465334,
            5.142379445161965,
            -0.5234541009998523,
            -0.10443622020717402,
            2.0116022381524568,
            1.1903181611121356,
            8.530553653408855,
            -1.924691487896491,
            0.8506371285639773,
            -1.7813669619071344,
            -2.026329742658029,
            0.558583446130104,
            1.7213500728978617,
            -0.589572782064802,
            -4.97557069819603,
            8.535914900850425,
            -0.1747873745834213,
            3.7139797452086705,
            -0.3100911756948196,
            7.974472474902292,
            4.691822008436239,
            3.1749338953646666,
            -1.9388198741277751,
            4.811641303916778,
            1.9153266278484473,
            2.422000156624657,
            0.05782767440036446,
            1.7025896151271254,
            0.266118954844366,
            -2.4917587729076356,
            4.132289310087235,
            -6.998671092674164,
            7.793861800589946,
            -6.845197164298072,
            -3.3576857715303596,
            6.097398708958266,
            6.979105148643113,
            -0.9075965270794608,
            4.331088325161088,
            8.48226241113553,
            0.8029042625661891,
            1.4696743087682536,
            -2.5584627312847057,
            -2.3393942927132656,
            3.4298026428254396,
            3.4789596644548424,
            -0.49164775624416057,
            6.5003602201157795,
            3.331797156090965,
            -6.713080964318584,
            0.7772043447910837,
            2.371803351545505,
            1.5085754609172244,
            -7.455895911746731,
            1.0209486737458653,
            0.9817636526406914,
            6.311402741817938,
            0.44417274884448754,
            0.7700699084975302,
            0.2975858261089029,
            -1.426884910487807,
            7.650214461873397,
            1.4208523041563752,
            1.3359962412956865,
            3.1951356245181692,
            6.055565720043711,
            2.580647810916109,
            -3.0740455599308985,
            4.271739176140486,
            -8.298652261771103,
            -4.939188730440727,
            -12.723362159379786,
            -1.1225643943924546,
            2.1847483317770218,
            0.9795035823744337,
            -3.2247285162281583,
            5.738782003794942,
            -2.7777654495653104,
            2.8958194893830536,
            0.803938111817289,
            6.139939991154761,
            -4.563231059675999,
            0.3549984640531674,
            5.002957975661035,
            -1.3491505686347736,
            -4.4074070718931795,
            -1.4621986600444474,
            3.8070498987085166,
            -4.083233977006056,
            0.5397437958537055,
            -0.4213039287830351,
            -0.32914864376577363,
            -2.4797384067961143,
            -1.7766455608638598,
            -0.0709102805906765,
            -5.176855901923367,
            2.374830231729892,
            -3.560719022877939,
            5.735333460850856,
            -2.9366787301273494,
            0.06754495949569084,
            0.6483964397471551,
            5.030701770679219,
            3.838827824306948,
            4.336591184254095,
            3.5675005568898386,
            -2.593208392674508,
            -3.201474866400482,
            5.430045632155617,
            -1.6730550130983461,
            -5.92922554326486,
            -2.2142036912631227,
            4.430159902264993,
            0.9967685314715172,
            5.350892264576789,
            -1.960853562654835,
            -5.356871280354861,
            1.7847019494233658,
            -5.000109837797106,
            -1.9169427313688532,
            3.60566588335833,
            -6.153527217046029,
            6.136029558697905,
            -5.801874493999324,
            3.5849184353709758,
            2.174103829840689,
            1.5900770939775666,
            2.610744263063512,
            0.6164461370398598,
            2.805969704287766,
            2.945965542461399,
            4.1206600532477236,
            -1.719856336353224,
            2.9018154200487754,
            -1.015760939119177,
            -3.4517583860081373,
            7.486974508835401,
            -0.6101995151895185,
            -1.5465517624774205,
            -5.814660913307535,
            1.0098750120517002,
            2.7755082117611214,
            -0.6709184486866218,
            -5.548338814870849,
            -4.242152825728957,
            1.0436359283078542,
            1.4627254346736258,
            2.092140922163242,
            -3.0670127186459935,
            1.6111067369620082,
            -4.24146900122802,
            0.1744116799507399,
            -6.977226999352726,
            -1.6754084800930151,
            8.327822670433857,
            3.2346018379271895,
            -7.051658787569561,
            7.323514885793255,
            0.7999898993141809,
            -4.123276889493243,
            -2.5567188861410006,
            -0.5240206365725548,
            -5.971389552587944,
            8.532310654959113,
            13.414818331103689,
            2.6122435054648805,
            -1.864580019930173,
            -1.8359161205619539,
            -7.068965408834391,
            -0.5320039432671648,
            -2.3783666838683684,
            0.16613515649486496,
            0.3314534047210317,
            -1.0111996379933812,
            5.3544171061297705,
            -7.706027967657827,
            1.4933404349994506,
            -4.668667402528178,
            4.015785606034147,
            -1.9753347862211168,
            4.6690990097512355,
            2.5271977187711245,
            -1.0322122140218473,
            -1.0941344735966294,
            -2.020007778347599,
            2.888991889893977,
            0.6304321684096483,
            0.9396095146957968,
            4.186641186444025,
            -0.49030347583043143,
            3.612027201116113,
            0.48660124170798863,
            1.9939204827064854,
            -7.339177635073334,
            2.442499734893519,
            -7.334716627368298,
            3.4059023911575976,
            -7.265702208296597
          ],
          "numRows": 16,
          "numCols": 16
        }
      },
      "ops": {
        "type": "org.ejml.simple.ops.SimpleOperations_DDRM",
        "data": {}
      }
    },
    {
      "mat": {
        "type": "org.ejml.data.DMatrixRMaj",
        "data": {
          "data": [
            1.9004830336243734,
            -5.87338988488618,
            -6.370324745698393,
            4.276780271916337,
            -1.843067528759104,
            -2.6070465173872903,
            0.5282067845008277,
            5.3503553923473035,
            -0.7490268882598772,
            3.982759388828252,
            3.925699755066755,
            -2.778184948166412,
            -4.6625565987953275,
            3.0389669561340655,
            -7.464000186870866,
            -1.8642625360689553,
            -2.1304206945487154,
            -2.282937863626811,
            -3.335243904019949,
            -3.4838395587349273,
            -6.581102272980945,
            2.2179506422354613,
            -5.642952049172638,
            4.123677731152359,
            5.775587920000426,
            0.6094679418552417,
            -1.755931682844149,
            2.1508616727643357,
            -5.095525345002114,
            1.6443302562459263,
            1.43162357130153,
            -7.439243490366622,
            3.261715464270126,
            0.14583039253522073,
            -3.8811393115206716,
            4.426683623270212,
            4.653196365821382,
            0.5306160422328979,
            2.239852811514575,
            0.48932171420712356,
            -3.3439611274676126,
            -3.0689293307180545,
            -1.9380157203216322,
            3.06071240836668,
            -6.114178201433167,
            0.33952806015405035,
            -1.769608255505993,
            2.363028240685708,
            0.44819360631821326,
            3.288127289991437,
            7.892709928729524,
            -2.0529231324263013,
            -0.9441554328183432,
            -2.749041406582966,
            -5.517116807498872,
            -0.5662177622468423,
            -0.17761504381189078,
            0.1542426960304667,
            1.5415134958666161,
            0.6680697309019559,
            -1.8332438564963818,
            -1.2838033843437469,
            0.01579097670489347,
            -2.44666130675571,
            4.821570932591296,
            -1.1600649523373612,
            1.8426514813749968,
            -4.745887921660429,
            2.538909700978883,
            -0.5777239130922238,
            1.5496987153315072,
            0.1678497717858614,
            -0.3411141957379651,
            -2.184371558568942,
            -0.3420700089974438,
            -0.4671059539836697,
            -2.070383118665122,
            -7.783691467470464,
            -2.840401831760815,
            1.8623821549745219,
            -4.394744689806866,
            -2.1559308961169927,
            5.094189934019957,
            1.98476781634503,
            -4.644151294738526,
            7.3734533280780905,
            -3.636031886437377,
            3.275298839003833,
            5.329727867738675,
            -7.433634272460225,
            -6.6505168872108005,
            -4.213903405377873,
            3.549805747914573,
            -1.8873082175343634,
            1.9941993551159545,
            4.282277934988216,
            4.19327794665393,
            -3.0548123483240976,
            -5.937920995662223,
            2.4568828880231948,
            0.5909577917694939,
            1.135498620669914,
            -1.325286286805372,
            3.9347452710294464,
            -5.027561603822365,
            0.9839193359834971,
            4.187064013906097,
            0.27239756083638633,
            8.292445403377172,
            8.24350367080371,
            1.803986783408593,
            -0.6043757621291025,
            1.9458713536657184,
            -3.757535731416167,
            1.3348070251335145,
            -0.8390967019424457,
            -1.935013471699151,
            5.301002670033537,
            0.6744318595458545,
            -12.011075647971536,
            -3.888843123307512,
            5.71067295254379,
            -0.42997801700616656,
            -10.314659918159292,
            -5.765895528240467,
            -6.393110828629344,
            7.0866143529893835,
            5.6317083224741795,
            1.3316119094809176,
            4.425102164512182,
            -0.42564886430138815,
            6.70233904546619,
            1.6424406538775396,
            6.063449481863341,
            5.430232912326511,
            -1.0059388262986007,
            -2.25116913459981,
            5.943878540088053,
            -4.501188562501154,
            -1.921349678642985,
            -1.6389416122332512,
            -0.7254691395806722,
            -0.9405294755713897,
            -5.239885488855654,
            -3.097998803120223,
            3.3057900903632516,
            -1.5310288255667142,
            -6.445025028902627,
            2.6397089894982306,
            -4.874770143992522,
            2.3283571714584115,
            2.391796375219796,
            -3.761478290320451,
            3.395943984090815,
            4.510124730150628,
            2.311955510536784,
            8.594870238391936,
            -1.0322291733386812,
            0.08674570398409381,
            0.19112476959417915,
            3.1220299496293746,
            2.3285578051153237,
            -8.217488124952533,
            5.224180206286165,
            0.7317082055236074,
            -2.932155272982667,
            1.138724148707798,
            4.348787095194358,
            6.057143536630143,
            1.9498850010235669,
            -1.7891750105281634,
            6.461200559391973,
            -2.5232453383282327,
            -1.4461576971227061,
            -1.3608961553803138,
            -2.5006546696720973,
            -5.042940038090098,
            6.3616924595842645,
            2.873368217543106,
            2.5477918134856603,
            3.1878124930345755,
            -4.700139910600614,
            -1.777351946841253,
            3.2960700294479275,
            -2.928807645806333,
            -4.118613523921614,
            -5.015460683668079,
            1.3691318842520537,
            2.9247067950672703,
            5.939436313482838,
            -3.148159271200533,
            -1.3690132531699193,
            0.7159117965868205,
            0.5412699389747814,
            -6.446219408192425,
            -2.7097378608891565,
            1.231585435375159,
            6.604242530812081,
            5.95542593817821,
            -6.359632501080274,
            1.0349590145936303,
            -3.44958104295547,
            2.6122426886798915,
            8.168700773570034,
            4.4367241727438,
            4.397483330132317,
            -3.034651247967521,
            1.949884519931295,
            -5.00553312670611,
            0.2117091505058813,
            0.30546916829229465,
            -4.242381146448547,
            1.804212286782788,
            2.5363161131032705,
            -1.1592934589638197,
            -6.47965359809668,
            -6.9696416530800125,
            5.136164371651773,
            1.791542287103847,
            5.323441010814508,
            2.1152646110665905,
            1.9683681926363517,
            0.3320483012797792,
            0.9462460402600346,
            -8.856330189280987,
            3.065134469005269,
            4.1294989322563325,
            3.7873080168218527,
            1.4545764996800488,
            -1.9120308365931915,
            2.423141985027372,
            -0.09534534955164464,
            4.405281282705474,
            3.119507684203288,
            1.3508414046956019,
            5.322301467004539,
            1.3828957369351729,
            -1.8995553517234933,
            -0.35145150251711366,
            -8.763388580642046,
            1.2036166197470686,
            5.2335616031307595,
            -0.05381113585819003,
            3.998389939691302,
            -2.1922122954001066,
            -1.1514163185605073,
            1.0697336211457378,
            -3.573266114355976,
            6.841260051388947,
            3.8342882825433806,
            -7.246487725557906,
            0.9772097482324265,
            -0.6090259329933991,
            1.9848335595119644,
            -1.3420040788070196,
            -2.7244464838877605
          ],
          "numRows": 16,
          "numCols": 16
        }
      },
      "ops": {
        "type": "org.ejml.simple.ops.SimpleOperations_DDRM",
        "data": {}
      }
    },
    {
      "mat": {
        "type": "org.ejml.data.DMatrixRMaj",
        "data": {
          "data": [
            1.584327778118596,
            -9.335657429334027,
            0.8495918259510649,
            -2.5187036667529847,
            3.3655672666739607,
            -2.580293441400198,
            3.5485557542513817,
            -0.1263167744803377,
            -0.9793226535395494,
            4.549249268789563,
            3.04441337130229,
            2.422492952064885,
            -3.975119384852192,
            -0.8455273704700066,
            -10.07445850013559,
            -1.4346873981823902,
            0.060415892274295724,
            0.40079235448505024,
            -0.1750305035747171,
            1.7361899304682082,
            4.506575924672066,
            1.578998113110384,
            -5.508400511546679,
            0.748402259315109,
            4.870954097784071,
            8.420956881871565,
            -9.39447119491787,
            -0.07892510593518709,
            -1.794188837897676,
            5.410196370261727,
            2.244524612813351,
            -5.142475016965836
          ],
          "numRows": 2,
          "numCols": 16
        }
      },
      "ops": {
        "type": "org.ejml.simple.ops.SimpleOperations_DDRM",
        "data": {}
      }
    }
  ],
  "biases": [
    {
      "mat": {
        "type": "org.ejml.data.DMatrixRMaj",
        "data": {
          "data": [
            -3.0794505941475547,
            2.797827535530874,
            -6.195307557459747,
            -2.783670359576208,
            -2.101021201863387,
            5.975411016770918,
            -8.62806180075032,
            -0.7396643583259747,
            3.1283818345699537,
            2.6529047868005717,
            -2.897335252502519,
            3.253536073178192,
            -0.5927671304917482,
            1.2790205994847479,
            -3.14587710367609,
            0.012792443612387405
          ],
          "numRows": 16,
          "numCols": 1
        }
      },
      "ops": {
        "type": "org.ejml.simple.ops.SimpleOperations_DDRM",
        "data": {}
      }
    },
    {
      "mat": {
        "type": "org.ejml.data.DMatrixRMaj",
        "data": {
          "data": [
            1.7922990681575888,
            -3.3899695299648105,
            4.263150465568344,
            4.033112632187589,
            -3.631001921361953,
            -3.9307250138768497,
            6.3228767295686366,
            -6.452841032843959,
            -3.2310866881665654,
            3.889842134741965,
            -0.9286596406640248,
            0.4079377149821225,
            -0.17056971871277754,
            1.2910529305722143,
            4.9130806912858915,
            0.29471784368502246
          ],
          "numRows": 16,
          "numCols": 1
        }
      },
      "ops": {
        "type": "org.ejml.simple.ops.SimpleOperations_DDRM",
        "data": {}
      }
    },
    {
      "mat": {
        "type": "org.ejml.data.DMatrixRMaj",
        "data": {
          "data": [
            -0.3126622156789751,
            0.5576619209839752,
            1.7845400084207665,
            0.41487274120763845,
            0.25566208331520424,
            -1.6142597413271105,
            4.381905096482039,
            -1.1719849426012363,
            3.788463589227097,
            3.14727586711169,
            -4.908308153381421,
            -0.7967535658997067,
            -2.7186375613993365,
            1.2402097419537368,
            1.5114257838771934,
            4.200701026165968
          ],
          "numRows": 16,
          "numCols": 1
        }
      },
      "ops": {
        "type": "org.ejml.simple.ops.SimpleOperations_DDRM",
        "data": {}
      }
    },
    {
      "mat": {
        "type": "org.ejml.data.DMatrixRMaj",
        "data": {
          "data": [
            3.308696254981093,
            -5.309307501014974
          ],
          "numRows": 2,
          "numCols": 1
        }
      },
      "ops": {
        "type": "org.ejml.simple.ops.SimpleOperations_DDRM",
        "data": {}
      }
    }
  ],
  "learningRate": 0.1,
  "activationFunctionKey": "SIGMOID"
}