{
  "activationFunctionFactory": {
    "activationFunctionMap": {
      "TANH": {
        "type": "basicneuralnetwork.activationfunctions.TanhActivationFunction",
        "data": {}
      },
      "RELU": {
        "type": "basicneuralnetwork.activationfunctions.ReLuActivationFunction",
        "data": {}
      },
      "SIGMOID": {
        "type": "basicneuralnetwork.activationfunctions.SigmoidActivationFunction",
        "data": {}
      }
    }
  },
  "random": {
    "seed": 146036873766581,
    "nextNextGaussian": 1.534235383252429,
    "haveNextNextGaussian": false
  },
  "inputNodes": 24,
  "hiddenLayers": 2,
  "hiddenNodes": 20,
  "outputNodes": 2,
  "weights": [
    {
      "mat": {
        "type": "org.ejml.data.DMatrixRMaj",
        "data": {
          "data": [
            -0.5849999010182316,
            -4.461949233994498,
            -0.5886647566056333,
            3.585605568088555,
            -9.592745844055404,
            0.36822261166761533,
            7.117130510237632,
            -1.938888575466043,
            -5.978410105249737,
            0.6831897407848202,
            3.6732259723374368,
            3.9203969652449815,
            -1.728445350771477,
            7.985664916158084,
            -4.975409805617377,
            -4.361382698836627,
            -0.017832727597558044,
            1.7616955641108003,
            2.0113916772848683,
            6.548729640679665,
            4.225238374832173,
            -0.9544201848758064,
            -4.201178229390902,
            0.7170849999347062,
            1.4986366743163226,
            5.38150901532101,
            4.076119677070956,
            -0.5130816043276165,
            -3.978422088145825,
            7.746891280456575,
            -4.183341573140549,
            2.1707367542610947,
            4.770493878890109,
            2.162410314293866,
            4.55506177829242,
            -5.815470507352946,
            -5.9166151594954055,
            -0.26524489051026945,
            -3.4071706004741587,
            1.0985428196008082,
            -7.775487113818109,
            6.360515622350961,
            -0.026864516995223617,
            -4.65120502550942,
            -2.8667765268171697,
            -3.346367715590582,
            3.094113317464299,
            4.988326076935773,
            3.3754047574045773,
            2.93925259727668,
            0.8383656026455762,
            -1.2606089628003043,
            1.9046576772444253,
            -8.373830363474545,
            7.001253851111406,
            -2.596949111645798,
            7.947704803901106,
            -3.0872456260614753,
            -1.0566996968038702,
            -7.537917935353776,
            -0.7188677734190729,
            -8.186058450565673,
            -1.2681685565036596,
            2.8570416597666886,
            1.2838610844636777,
            -6.85659286005282,
            1.5564491559261198,
            0.5121373568510937,
            -2.1460220309776648,
            -9.309293711363335,
            -2.6935374707793556,
            2.414747816520918,
            -3.136277668911522,
            -0.5196857374448065,
            -3.7937723745406395,
            2.8184404435175625,
            -2.7445208917252537,
            0.425039751006574,
            3.761312454003278,
            -2.8144289910099203,
            -2.797274262079192,
            -3.495291352702494,
            -0.38913725155092566,
            3.000665593201205,
            -2.3181766065522416,
            0.8708404885796217,
            -6.978362796198386,
            -5.035487122702984,
            0.3696487524673319,
            -0.3979033715576518,
            4.594876481027852,
            2.591601688506435,
            -4.116843007217978,
            -2.486710236100931,
            -0.4744450668848489,
            6.372168028889266,
            -4.545215746039958,
            0.7334413268766321,
            7.651674665109334,
            -2.9092639273000405,
            1.7284361339961825,
            -4.199290630790641,
            7.517218091111805,
            -1.2437624785905366,
            -4.699307673639987,
            5.223740294571032,
            -0.12688345538724977,
            -0.006193712871451637,
            -0.43017662871430173,
            0.6499291266301788,
            2.586147321033028,
            6.761960275391795,
            2.6621836904649485,
            1.9694369646120735,
            4.410684514480848,
            4.978937285261458,
            -2.039952541580474,
            2.9851146386975898,
            3.1822293641959627,
            -0.29052510032690115,
            -1.6318159597680173,
            -6.827871314028544,
            4.060546306882617,
            0.22377825271190166,
            5.611804924273699,
            2.101333273992442,
            0.567237464021413,
            -0.5367670141685961,
            -6.223230219348743,
            5.087794307095586,
            -0.034302921956139765,
            2.5107086433339614,
            -1.0369033977068214,
            5.665051992096122,
            1.5457418812081514E-4,
            -0.2873235445965843,
            -1.3037843329440244,
            -2.243628558837421,
            2.9697726889371654,
            6.708058071193546,
            -5.5403160543881675,
            -4.163886359423832,
            5.300892665732194,
            4.7795756251026935,
            -6.059366469977572,
            -5.113865282036025,
            1.8420883199806894,
            3.1375724762661665,
            0.5912493712920371,
            -5.4387779595265835,
            -1.4054178339328636,
            5.232600562898399,
            6.480327953590187,
            2.621043495766361,
            4.947520606300636,
            -3.0699170726416054,
            -0.3923691231511092,
            5.962334664353321,
            2.900130958016247,
            -3.154664282425613,
            -0.6336038289800094,
            5.55720517927786,
            0.5984255695860274,
            -3.429799138189842,
            1.0493115926955383,
            3.326348506059478,
            -2.382992539408833,
            -5.375278445028107,
            2.086437284470105,
            -1.6941081417929071,
            7.047076360559323,
            4.611003395114313,
            1.1417946668619965,
            0.316644697898849,
            3.9300810481393578,
            -1.0798772588652243,
            4.861906110462578,
            1.8566161164081791,
            1.2115865627221027,
            -1.940617526201104,
            1.1012571589171927,
            1.0878539919067305,
            -3.3005414843596075,
            4.747286013836374,
            2.9470991259071484,
            -8.767357189659522,
            4.738389757489221,
            -1.8937388432419033,
            0.1020810549412624,
            4.993584054571476,
            -2.890531877018282,
            -3.6932043197674513,
            2.6279367145879444,
            -7.9436535976491855,
            3.598992503785101,
            3.0564847067580123,
            -13.762749889296542,
            -1.2175414415419739,
            -0.5903767990636947,
            0.7435473243491104,
            -6.138211751101276,
            2.938824258546851,
            2.920011224305977,
            -2.623417191511604,
            0.46274780906031254,
            -0.6631516471865868,
            6.19798470177126,
            -3.015527628076143,
            -2.4642950799188834,
            -5.543035652472113,
            -1.098438990192601,
            -1.8523006760485416,
            1.2542328905450615,
            0.9203293712725662,
            -1.4283421863092673,
            -0.4259601856605295,
            7.4039787122648955,
            -5.702900262966136,
            9.637034545377146,
            4.243970222153431,
            -4.267228998491291,
            -0.677130680820734,
            4.331042837330438,
            -3.701402751760311,
            1.9987105632749682,
            -2.1187565589129576,
            -0.26471709227446993,
            7.814929025879391,
            1.7107783308649067,
            -9.02526209909442,
            0.05010694870661059,
            -2.1347391062582917,
            1.044415360738527,
            4.102479159562581,
            -3.6612823722080505,
            -3.324693527437069,
            0.5048640306146122,
            1.7134022035971095,
            -0.178251652690459,
            -1.2625604068510938,
            3.869789564648905,
            -7.538687149695447,
            -2.6885164310968186,
            -8.089206769425848,
            -5.220262205646133,
            1.5982258038817323,
            3.860289811879233,
            -0.710224126946059,
            0.36787787238237024,
            -7.090101357587835,
            3.9623058851475816,
            1.6725657098905486,
            0.006995995069240202,
            3.7544809175199405,
            -2.7220332729775043,
            -0.7033447711802029,
            4.046340935096863,
            1.6606024328028601,
            -5.563081551968815,
            -1.587789436180786,
            4.946600856655981,
            -4.221635654794488,
            -4.226071167406197,
            0.7466359091330009,
            -9.403651285946841,
            2.763581099786081,
            3.8270855650283275,
            -1.0392420655287333,
            -6.621476083779449,
            6.035610695503665,
            -0.20100927411642655,
            4.626277516016411,
            0.768514532929736,
            -0.24940136637275717,
            -0.3371796083109011,
            6.963852948799197,
            -5.230284733838651,
            3.53118796663388,
            2.2521937867311834,
            -0.21260108930830923,
            -2.2168788188420594,
            -3.86565428047169,
            -2.3978492438722045,
            0.9773979306309181,
            6.540273928860828,
            -4.273690121473597,
            -2.108780722826083,
            6.042423616751444,
            -2.6212139301620105,
            -1.562584716906943,
            0.777151683405914,
            -5.42051654574039,
            -0.8938390067680787,
            1.333611979742144,
            -2.357210618742781,
            -0.8966307156984319,
            3.7001767799180816,
            -4.4158979134854714,
            3.9083111426789916,
            -0.9517972029267134,
            -6.1185179035957775,
            1.0643917853811482,
            1.3903274062705067,
            -4.098335869642475,
            -7.819702059570188,
            4.33976842939982,
            -0.04370568799873764,
            -0.020734025478895662,
            8.127892493510814,
            -0.7357988602354707,
            -3.737802970473009,
            -0.515742044332582,
            2.1931328246122836,
            4.514241850476613,
            -1.5105160614704474,
            0.7212559545120564,
            4.304166115851523,
            -0.6187178963545357,
            0.0786605953219306,
            -3.3160791758923605,
            3.1130686058217325,
            -0.9035140792012492,
            -0.9861834394149516,
            6.18564000687253,
            0.03682242798375779,
            4.330215227813327,
            0.3701161903006035,
            -0.10115309260814803,
            -4.592029021477084,
            2.3841732502965094,
            2.5380832248206113,
            7.446127083930787,
            3.4300760384872864,
            11.500279789226685,
            -6.544130561823165,
            2.709765642212472,
            -5.812322721686041,
            7.025288435198224,
            0.7038366586445288,
            1.5112171411178035,
            1.3031828476532181,
            3.8981126847034044,
            -4.987480636812559,
            1.9724655704649943,
            0.4851767235225618,
            -2.100182208502294,
            1.9037098230695728,
            -4.672058599605992,
            0.14694948557029935,
            -1.5070004502885543,
            5.579287616823984,
            4.7470492681317324,
            -0.07922700558211537,
            0.5885406893200574,
            4.449924318139521,
            -0.2902951869338225,
            -0.5256203092765096,
            2.985458056536753,
            3.0709968237132683,
            1.6072784730180527,
            -3.1957330534288353,
            -2.8602114173351354,
            4.066129963291333,
            5.119237604456991,
            -2.1692274738442334,
            8.738682911895886,
            -0.3168076789273169,
            -3.4284782858539056,
            -1.2005218302114407,
            -3.5187437366387697,
            8.825595195181899,
            4.147285340381665,
            6.663923246147394,
            6.905468434468347,
            -2.331859822622597,
            -3.3353163926182727,
            3.759129267197935,
            -1.2595580686487418,
            -2.025273800873391,
            3.591078819385667,
            -12.022329579333379,
            -3.5619566344800484,
            -2.374082050283525,
            -0.4356325319671649,
            6.248323672490207,
            2.320534375995707,
            2.4416817621202647,
            4.043634648953309,
            -4.321235446680043,
            5.002375114757669,
            -0.7863819437973069,
            1.035193049149953,
            0.8695265861616807,
            0.0013339696306654547,
            6.087223582215564,
            -1.664679262619309,
            0.9794787313417468,
            -3.880706619572588,
            1.1580292227840734,
            -1.9057978086813614,
            2.132610108918457,
            5.7785430895239385,
            -7.498329763508367,
            4.011189621188513,
            -1.1355685892406042,
            2.221757520041607,
            0.2357049560532219,
            1.922486158902272,
            -3.6359569373682894,
            -4.1120269673662613E-4,
            -2.716871493683747,
            1.7144899274958398,
            -3.230104151181399,
            -0.9969473968437478,
            0.13765644226456075,
            -1.7018761676268692,
            5.620166377405061,
            0.4916437190432956,
            -4.425102427336575,
            0.351346782153497,
            -1.6915968858071126,
            -3.773972504198606,
            6.282722957433589,
            4.370485528901134,
            -5.370004378120327,
            -2.0317422530173332,
            2.0174396543499067,
            -0.6657344044047065,
            5.351460878456175,
            0.4557237788069436,
            3.8463893511278084,
            10.965300881644477,
            -5.444606345149269,
            0.10887795709204162,
            -4.4261708840528,
            7.90281613591452,
            0.3822417992967819,
            -1.0656640678848732,
            -7.836168350887268,
            7.133627895312371,
            -2.9981893900564063,
            -4.769914524279637,
            6.463049895701927,
            -2.1331614016141747,
            -0.7594312873554767,
            -3.2937845052525363,
            7.625427113665137,
            -2.9535853525478397,
            -0.15474835161582878,
            -3.6768043857068093,
            0.9912693723845731,
            -0.15946669741535646,
            -4.5015197063515595,
            -3.976821771657349,
            0.9866580271056675,
            -5.944203458443574,
            -2.1547150129459105,
            -1.5522779341380895,
            3.384447219964662,
            4.634958430123478,
            9.10206449760941,
            3.8180926207552695,
            -6.695963970551046,
            -2.9342230814099923,
            5.299015709166645,
            3.9710590762173164,
            -0.6890091421576089,
            -0.007119023528489976,
            1.5523936470174913,
            2.6639638207110012,
            -2.2444005060458485,
            -7.833608969014478,
            2.6176921620640163,
            -0.7650017260699393,
            4.808749177364783,
            -6.7391244721760355,
            -0.08243744511278683,
            1.7506647397770416,
            3.6090752458237914,
            -2.911116540856763
          ],
          "numRows": 20,
          "numCols": 24
        }
      },
      "ops": {
        "type": "org.ejml.simple.ops.SimpleOperations_DDRM",
        "data": {}
      }
    },
    {
      "mat": {
        "type": "org.ejml.data.DMatrixRMaj",
        "data": {
          "data": [
            4.071999901857378,
            -3.938983733505941,
            2.4658975807642562,
            -3.648375376289315,
            -4.971919180929873,
            -5.058016059582821,
            6.2356457834667625,
            5.248602806934132,
            1.8225228616020632,
            -5.817029894877616,
            -3.9760810423642705,
            -3.31009270088305,
            3.5645382406571313,
            0.7024693926405416,
            -2.7837863713284565,
            -12.468392244218508,
            -6.612540212856829,
            -1.1256977612491244,
            4.597653795881423,
            -2.118283431996404,
            -5.721623108509434,
            -4.664202103086494,
            3.8938625435145613,
            -2.4619710009920617,
            -0.566406925134453,
            1.4125238474510786,
            0.1495740130512671,
            -0.9468567843998935,
            5.086886592753131,
            3.1727471500003452,
            -0.902544033964581,
            -2.505997269745063,
            3.287142931781606,
            0.3301853303038333,
            2.607954276952926,
            -0.5566211587302012,
            1.3598857331639294,
            -3.8234595380409213,
            -2.382716905911297,
            -6.5045484776506495,
            -0.9199104736253023,
            -4.276624468258049,
            1.797378684938822,
            -3.4505986540936178,
            -2.5667390319368195,
            -3.0985237917931503,
            -3.587357832247369,
            0.047766131529461804,
            1.035219223056379,
            3.2553704502495218,
            5.548979523841744,
            -2.3434480271203824,
            -6.600308014618268,
            -0.2621240458359877,
            0.9961508553462382,
            7.26278589884247,
            4.066329276037107,
            -10.683796282144913,
            -10.096001537219353,
            3.5386851374538404,
            -7.366683430536152,
            -11.138939605543177,
            -2.127210321813903,
            3.66591730574108,
            1.752220878967194,
            3.7474453547685194,
            -2.509177904198434,
            4.660772775893325,
            -2.7109828525687694,
            2.61980833494965,
            -2.01283359006976,
            2.337919078882955,
            -6.137571365446489,
            3.471469484703523,
            1.557147788330016,
            -2.75100181180527,
            -0.3765629518287281,
            -1.4699279855063068,
            5.728177933801557,
            -0.6720813612217968,
            -5.087127247284092,
            0.21752016726143042,
            -2.940745762416756,
            -1.0503110287805033,
            0.31612975948999245,
            -4.974476907676388,
            6.02897987951263,
            1.9802109044495027,
            6.155339451902507,
            1.1591101972510371,
            -1.7826602035083918,
            -2.5570102969962942,
            -1.730453961524826,
            1.7976089188558482,
            5.515735459971257,
            -3.753958722510763,
            -2.01155687905405,
            -1.7572512792224946,
            6.022739129576054,
            -7.8149607419006255,
            2.9933877226894534,
            1.8308549700595647,
            7.359656893252197,
            -2.6360823932976962,
            1.8935982250379948,
            5.810445766198559,
            -5.415926236109244,
            -2.6051012900084443,
            0.4848126440858276,
            -2.1862653431086048,
            -3.993266364461296,
            7.889149917884133,
            -6.054390146498095,
            -0.16457877553953315,
            -0.760304719808752,
            1.1584894147117568,
            -1.016451102590789,
            -2.9243137831283876,
            3.9381150192443877,
            2.0449495582228585,
            1.423545203252152,
            -2.6545998148500436,
            3.8388852800781366,
            2.733135595233997,
            3.429527726628864,
            2.8534052484421175,
            0.625642664252803,
            -10.331456353207523,
            6.977775636834658,
            0.5289307209976417,
            5.823209726447806,
            5.776340081943894,
            0.6451517780035041,
            2.0860938639553,
            -3.249149918185714,
            -0.22857658216036653,
            -6.02582157701738,
            -8.35202721196041,
            1.1757472007047207,
            -3.2379765742718205,
            1.7558606068877665,
            5.5164604208834245,
            -10.795197256920982,
            -3.6222253483612743,
            -0.9980651739891546,
            7.940966047839069,
            -10.213472868850687,
            -0.42775289462588284,
            5.305078818674072,
            0.31198675818994587,
            12.183149356673374,
            2.9574747534079213,
            -0.05090438031570799,
            1.0305396513998606,
            -2.2492568178110246,
            -4.9677262908122435,
            -0.29651503383524935,
            2.1571679184563486,
            -5.216000863541684,
            -4.006097398640379,
            -4.645236966143688,
            -1.1506048156597324,
            -0.30666769980213326,
            -0.49408237840561237,
            -3.8452955681462853,
            0.3128283827905746,
            -1.012625540095038,
            -0.31430829882887734,
            -5.204077435678586,
            1.2278283907374776,
            0.8676070534431725,
            -5.594935825476931,
            4.730301687946396,
            2.6904692810508886,
            -0.252864057249155,
            2.5294254171804758,
            5.240285436574753,
            -11.145210602553423,
            5.61949791778248,
            -5.415641857380966,
            10.031129952511714,
            -2.5036817483544556,
            5.89584354012105,
            -6.193542480849106,
            5.237307458164684,
            4.637453707698576,
            5.196452820628645,
            5.706821384894016,
            -2.6202695364318744,
            9.794662318940357,
            2.697003481389343,
            -4.736875300066273,
            5.686244832544345,
            1.951392792741422,
            0.4903779095434506,
            0.3043443645689734,
            -1.5250709226762456,
            -2.8237017762370176,
            -1.3822276093355044,
            -6.581173403352015,
            2.5425394173574523,
            -0.7446544820591827,
            0.48103340450005133,
            -2.5172792693812576,
            -4.431250713066215,
            6.921167992305503,
            -4.542568489222409,
            -0.5106228144577414,
            2.025093559708665,
            1.2931007445008422,
            4.195429859925306,
            0.36811809131349427,
            -1.777129916655538,
            -2.9967251298941706,
            2.317236507067284,
            0.2700250490491019,
            2.470964563654037,
            4.4987490095509655,
            2.454695092377177,
            6.762460622280619,
            -4.2774810882146745,
            -2.4610478595576817,
            11.60256623224537,
            4.208926279947145,
            4.407784315716524,
            4.125192764753137,
            -2.5063094347176778,
            6.455774500317966,
            -1.0216052342688164,
            1.1453977584037625,
            0.45607397204834577,
            -1.3845824533476216,
            2.4676248369615466,
            0.9226700509706728,
            1.4804065673898694,
            -1.2674564061889186,
            0.34315973696849444,
            -5.890660141420805,
            0.325904362076876,
            4.924992012031795,
            -0.06563386495769918,
            -2.7593300981272706,
            -0.13579077872989653,
            2.3132087758718227,
            -0.24726575202479717,
            4.109989408068661,
            -1.335333568609966,
            -0.3837085494652943,
            -1.1311588574219757,
            -0.3250137077892977,
            -1.1389063086483553,
            2.6649967226968947,
            2.8812241231590514,
            3.36519633903117,
            -6.659837151451005,
            6.1855255095829795,
            2.255351215502725,
            2.9594228048175264,
            -2.530922641093528,
            3.3235433564848513,
            6.301297892130471,
            -0.5647695089037109,
            -1.5679990378466124,
            2.6862461747070387,
            2.0512197812331254,
            -2.6337524720210284,
            -1.6787802944779897,
            11.331271395190527,
            0.44717114680001435,
            -0.17609523743851643,
            -4.272974317531624,
            -2.4328031405599484,
            -3.884211848670782,
            -0.7871774124057336,
            2.3097415845135494,
            1.8695281888151218,
            1.1111522588657263,
            -1.8667212828831221,
            4.776262812061549,
            -0.4149649385532232,
            -0.6958981017808651,
            0.7766406405468026,
            3.144020856266834,
            -6.2148772562863694,
            0.7538899889705475,
            2.0041655491109234,
            1.6629342602981763,
            -5.040585675259944,
            2.010457946650267,
            -2.041917489148556,
            -3.467080184917722,
            3.6813019266364355,
            -4.67423798340932,
            -3.7659639145477253,
            -0.9367536265892673,
            2.139090701571011,
            -0.45876940066727256,
            -0.2771736332907826,
            0.0841003521452045,
            2.2932476484797855,
            -0.09139105325543784,
            3.9365235749125733,
            1.6947869043517472,
            0.4638817860459993,
            -3.377545031709999,
            -7.715313858840202,
            1.004281935441039,
            0.10810335703938229,
            -0.3731952343262591,
            -6.713348931473704,
            6.823694846557371,
            3.756852678259024,
            1.6351790618340032,
            -1.0060589574445669,
            -1.3887142536812314,
            -4.940526307426548,
            -0.7286931643416835,
            -3.610041276770943,
            -1.8700182178468898,
            1.2544089526974842,
            -4.135040082747696,
            2.0398457176208296,
            -2.879820514359919,
            0.3689063214314623,
            -1.2128668162465985,
            -1.8243389780027108,
            6.173974383881108,
            4.496217383120969,
            -5.358414038196376,
            -4.618575123708789,
            -2.6012932986365165,
            1.9998799468327233,
            3.5473302433128318,
            -3.6346783737050083,
            0.6680305733636609,
            0.620177066132688,
            2.501144235785943,
            2.2775129813891524,
            7.562536025348999,
            4.365130270640837,
            -8.998230036556603,
            2.6434081948204864,
            0.7378417346230344,
            -0.45343149230350344,
            4.234687767678251,
            -6.837267839388415,
            -1.3190947956527461,
            -5.088982699395531,
            -6.552261723720222,
            -5.761181022166448,
            -2.6726613874373575,
            5.241526652681169,
            -5.2850735564340425,
            -6.553369923539039,
            4.4973462634736645,
            -5.086638975678016,
            -4.480327484614484,
            -0.9997969467174463,
            -3.574397669695596,
            -10.127695749267305,
            6.839725062826806,
            -9.953643885784285,
            2.933626966033571,
            2.3156729524965263,
            3.5423073052429523,
            0.325636674832563,
            -2.3526371510596884,
            -8.652372760834927,
            3.711023442091978,
            1.894634361344594,
            2.5463696394755395,
            -4.73610957641239,
            -7.554824930017973,
            -0.15040941774248717,
            -1.6693938765156817,
            -0.6612535023513415,
            -0.3564806340783696,
            -2.566473413867768,
            2.552845043088592,
            -4.892833700161259,
            -1.304322094479821,
            -1.3867481606834253,
            8.224867708063288,
            2.07816118045072,
            7.599534748194566,
            4.454900654168952,
            -0.9070950525965352,
            -2.296136795126432,
            -5.047141285671027,
            -4.549308749302826,
            2.6980836949725835,
            -5.735508423206855,
            8.604107257037427,
            6.79725213444321,
            4.410255755602086,
            -1.5171101449369597,
            -2.5603830468769564,
            7.6124354847553715,
            -4.316526178902639,
            -0.24964926357686268
          ],
          "numRows": 20,
          "numCols": 20
        }
      },
      "ops": {
        "type": "org.ejml.simple.ops.SimpleOperations_DDRM",
        "data": {}
      }
    },
    {
      "mat": {
        "type": "org.ejml.data.DMatrixRMaj",
        "data": {
          "data": [
            -0.44298191333506676,
            -1.8177717781668337,
            -1.883925108015967,
            2.277984158609896,
            9.907390739516238,
            3.3396884700826326,
            -5.300543401602043,
            -6.051947252451757,
            3.1839129835072106,
            -11.021139956525948,
            -3.6753645674112425,
            2.1293693261535216,
            3.1163330554339823,
            -1.106735366092749,
            -3.421800540631585,
            -0.8749512337869289,
            2.820583797299684,
            2.2183643767764796,
            0.08994672646301366,
            7.998301978136616,
            2.4509974720424212,
            -3.658188545071611,
            -0.1504185396246725,
            2.433283140874409,
            -1.1884006324701426,
            1.1428642978459291,
            1.3805188546027394,
            -4.3665354883912215,
            -2.838147803530958,
            0.17257933784897234,
            0.9058804502978406,
            5.39914286665186,
            1.4455551613657183,
            2.809971505911476,
            -9.868600953325547,
            -0.8742807612878859,
            -9.191774549689608,
            -0.4608286255890237,
            -3.746105995697482,
            -4.110755932376687
          ],
          "numRows": 2,
          "numCols": 20
        }
      },
      "ops": {
        "type": "org.ejml.simple.ops.SimpleOperations_DDRM",
        "data": {}
      }
    }
  ],
  "biases": [
    {
      "mat": {
        "type": "org.ejml.data.DMatrixRMaj",
        "data": {
          "data": [
            -4.825384503062864,
            -0.6501029288155268,
            1.152839347276786,
            1.8607809873185561,
            0.7528664447382836,
            6.163107529679051,
            6.935384307229024,
            5.400055619291253,
            1.3807969327125469,
            5.267282669064282,
            -4.329979824187928,
            0.07866650196828603,
            -5.862695316532434,
            -5.300625281400129,
            -4.036589990364784,
            9.496313809745146,
            -1.3232103679378575,
            -1.4875368764065964,
            -0.9773555188214755,
            -2.6911379623958016
          ],
          "numRows": 20,
          "numCols": 1
        }
      },
      "ops": {
        "type": "org.ejml.simple.ops.SimpleOperations_DDRM",
        "data": {}
      }
    },
    {
      "mat": {
        "type": "org.ejml.data.DMatrixRMaj",
        "data": {
          "data": [
            1.2518034397379088,
            -1.5848424865912094,
            -3.3278327776295655,
            0.2809932282223643,
            -1.6167448524657761,
            3.9526137107933743,
            -4.469181538166032,
            2.431530767892706,
            3.897658419017427,
            5.5536762584444626,
            -3.2679046237025977,
            0.46615488703211483,
            -5.920892132479281,
            0.17694167801834948,
            -1.2598986032025645,
            5.510870691216306,
            -0.390533363920205,
            -0.5376710036160566,
            -4.519778663858322,
            -1.4111724667265133
          ],
          "numRows": 20,
          "numCols": 1
        }
      },
      "ops": {
        "type": "org.ejml.simple.ops.SimpleOperations_DDRM",
        "data": {}
      }
    },
    {
      "mat": {
        "type": "org.ejml.data.DMatrixRMaj",
        "data": {
          "data": [
            -0.5669137607141306,
            1.785570762652617
          ],
          "numRows": 2,
          "numCols": 1
        }
      },
      "ops": {
        "type": "org.ejml.simple.ops.SimpleOperations_DDRM",
        "data": {}
      }
    }
  ],
  "learningRate": 0.1,
  "activationFunctionKey": "SIGMOID"
}