{
  "activationFunctionFactory": {
    "activationFunctionMap": {
      "TANH": {
        "type": "basicneuralnetwork.activationfunctions.TanhActivationFunction",
        "data": {}
      },
      "RELU": {
        "type": "basicneuralnetwork.activationfunctions.ReLuActivationFunction",
        "data": {}
      },
      "SIGMOID": {
        "type": "basicneuralnetwork.activationfunctions.SigmoidActivationFunction",
        "data": {}
      }
    }
  },
  "random": {
    "seed": 107431333928471,
    "nextNextGaussian": -0.5225333162379262,
    "haveNextNextGaussian": true
  },
  "inputNodes": 11,
  "hiddenLayers": 2,
  "hiddenNodes": 16,
  "outputNodes": 1,
  "weights": [
    {
      "mat": {
        "type": "org.ejml.data.DMatrixRMaj",
        "data": {
          "data": [
            0.27833445549949304,
            0.6793973695847035,
            -2.4916003275921756,
            4.445144655429466,
            -11.164996633905956,
            -0.6271216529519155,
            3.374662642375141,
            3.5112460388366404,
            -1.259129385703221,
            -4.452682657524108,
            15.488065698811923,
            -1.8001726434011454,
            -1.4324808132537967,
            -0.23576661510422847,
            -4.083279861527199,
            -2.1721987909593405,
            -5.136382034939877,
            -1.254149983046933,
            -5.112481508282689,
            1.2601965808167725,
            -3.8372249827072102,
            -5.68762288121074,
            -2.702984727574859,
            -6.98337570090607,
            4.037660257067008,
            -2.1546019774550236,
            -1.4767473471999932,
            5.449321008503922,
            -4.083035788273692,
            -0.176085574267638,
            -1.2427884143197534,
            0.03667664205484611,
            2.939349644611853,
            0.36957505366558385,
            -6.168074410292805,
            -1.0314186907120795,
            0.25287356837173536,
            -6.426642309133637,
            -0.5815872389427978,
            -7.704699106009968,
            -6.097252170730167,
            -6.604054797176862,
            -5.118095915786983,
            6.031482167832652,
            1.7315627162296217,
            -3.53224220902122,
            -6.266701136523595,
            4.90544400496799,
            6.383093111756218,
            2.8373061173598755,
            2.617711707355224,
            3.4485247147494587,
            -4.535295742442204,
            -5.878854061164148,
            5.360896605969152,
            1.3172605371379058,
            2.580529672712542,
            1.9824910276313135,
            -2.2091305174583655,
            -4.670986893602976,
            -4.174241203196536,
            -6.333451833950809,
            -2.8717042147266256,
            2.277939964169156,
            -1.07327868694583,
            -2.24580107243244,
            -6.389534819010672,
            -2.326056873699494,
            2.6777719348915143,
            -2.9881736176712326,
            1.6185940813342903,
            1.6656449928937553,
            2.403299920344984,
            4.608355916568911,
            -4.784362244229611,
            -8.444855051966975,
            6.555920320962203,
            -1.1901653957922482,
            4.13391590527814,
            0.39837410372260673,
            8.40631583015367,
            1.1047983756705029,
            -1.2803597474106134,
            3.3014628401561312,
            -5.4582057604443355,
            -1.9898687104814246,
            -0.004163494425442504,
            -5.248141550939797,
            -0.44588130424622047,
            3.361878385670737,
            -0.6657721511159187,
            -2.3060345889525684,
            -4.877343054710216,
            0.07482597241846434,
            -3.9943754966992673,
            0.27609754595812375,
            -3.5354915465435925,
            0.5634110045781116,
            4.121880498099982,
            7.657907522805244,
            -2.436621344387986,
            -1.0659165931634804,
            -4.058629520238557,
            -0.27893139464619826,
            2.230610267474804,
            2.5644347293992906,
            -1.974821061666603,
            -0.5832629151566195,
            2.759164617635058,
            4.80784678474656,
            -4.812131208531519,
            -0.42009125913454015,
            4.085543899102544,
            6.980314910663932,
            -10.18635973648185,
            -2.603878729580566,
            -1.4974589279233468,
            4.560424464673083,
            0.11864701003624839,
            -3.3493795646605564,
            -4.073996908776699,
            0.5722864649187022,
            -8.766133819143567,
            -4.080139545693084,
            -3.045632460247853,
            7.460596782706335,
            0.7055924391495881,
            -2.6967864438055638,
            -1.5947299647076676,
            4.536412536128778,
            -0.763566035006393,
            -6.1891453692972025,
            1.8049419578613404,
            -0.775682705519079,
            2.7887447884858987,
            0.34269716916486215,
            -5.4127102099541995,
            -3.6721875200575083,
            3.5501315181476634,
            0.5527235851040858,
            -5.832740824969492,
            5.205539094707809,
            3.7837340996319027,
            -2.815668219583139,
            -7.40142129962484,
            0.07802376925424448,
            -0.6034811988060019,
            6.46699207606327,
            -3.53285415141772,
            1.6478960920406696,
            -2.1496052779522548,
            2.117704994433157,
            0.15719634966304785,
            -5.888582475286203,
            -2.891000016161535,
            -6.15652954238784,
            -11.476691031523366,
            -2.2476216924240933,
            2.209875808738059,
            1.8008701624278347,
            1.5829414318442017,
            -1.404069972159417,
            -3.2095841881992255,
            3.8325552674059717,
            -2.7231051836713838,
            -2.0234937671556392,
            -2.1953496278364892,
            7.085011437489952,
            -1.392861884926351,
            -0.37567697139555123,
            0.3709839851900998,
            1.1154666400708502,
            -8.845861195941401,
            -7.63431405231554,
            -4.13232636284366,
            -2.081955446666881
          ],
          "numRows": 16,
          "numCols": 11
        }
      },
      "ops": {
        "type": "org.ejml.simple.ops.SimpleOperations_DDRM",
        "data": {}
      }
    },
    {
      "mat": {
        "type": "org.ejml.data.DMatrixRMaj",
        "data": {
          "data": [
            -1.7861207328865367,
            -2.762374060103383,
            -0.45401185038315417,
            -7.303969915472205,
            -3.9638972952322913,
            11.615764200499726,
            3.5836623585554155,
            5.454534727891633,
            -1.3026705711732938,
            4.850017268859504,
            6.163165568405924,
            -3.281656889112674,
            -4.836201079019234,
            -2.060554130259325,
            2.5727132806178394,
            3.107980805857145,
            0.1537108676574952,
            -4.778188534747804,
            2.0241945233450065,
            -2.1046459093934184,
            -3.178196850555922,
            -9.379179739852946,
            -1.0425798064551641,
            -6.403524223625234,
            5.507832491197784,
            -1.4874349602619754,
            -5.21388953288896,
            -6.383159356954472,
            1.1557586352483993,
            12.114299821603696,
            0.35793160848430366,
            -7.912792270739091,
            -7.878892625624589,
            -6.713570333575996,
            -4.398805104641526,
            1.2878858127349433,
            3.935441922903056,
            -0.725356215203976,
            2.5188883234428645,
            7.22803296046789,
            -0.402216308668621,
            0.9925810681255497,
            2.3985517174399176,
            0.33190694054080405,
            -0.2075637426488125,
            5.064540912335567,
            -0.7788174606651891,
            5.478690955652503,
            -0.31340523396785414,
            -3.0261426692267954,
            -3.8100269238803888,
            10.543256049548733,
            8.911818478181118,
            -1.7818125590262441,
            -5.752026930332006,
            1.965928151987475,
            1.9245586098446763,
            -6.661004698143061,
            6.378250793058098,
            4.236023601435161,
            -7.03604356307671,
            0.11858428427178051,
            -7.384381867489932,
            0.8334965611477344,
            -4.319312190208225,
            3.4491199666999877,
            -5.963691165643025,
            -3.059244931092447,
            0.351596751192759,
            3.259365843738054,
            -1.8174890852899048,
            -2.8459498245854937,
            -6.0535356014500215,
            2.7734257163043328,
            -6.335656278636212,
            -6.182107435064959,
            -2.6029154394188794,
            4.6917651451903115,
            -5.982951929845203,
            0.25016187897276354,
            -4.52417756126301,
            -8.03054236039136,
            -5.521679583045191,
            -2.823057981869118,
            2.281848121801993,
            5.518598248601372,
            -1.6587884178318613,
            -1.7588418572717555,
            5.361406944949932,
            -0.9108678011438105,
            13.748952484966082,
            6.078057897949444,
            1.7872765728654314,
            3.2342427355586856,
            0.17155467783931475,
            -0.5238653026275278,
            -9.929558873008874,
            0.894894186323403,
            -1.3305389610331941,
            -1.7978028279699414,
            -0.21589912266189243,
            1.596161613493623,
            3.1663123617769617,
            4.051551747693174,
            -3.9731117796323656,
            -1.9505912227942215,
            0.3695233616297681,
            -1.4251255847095052,
            2.281476464016422,
            -3.678604962885663,
            0.8565178458429776,
            -4.347099638171684,
            3.2454947470991113,
            5.982366676935445,
            0.35445918398619314,
            10.004957686509726,
            6.951255018562572,
            -7.5618822121709215,
            -2.393654605117428,
            6.089487148041801,
            -3.464530228899117,
            -10.033453520992108,
            5.635722093438993,
            -2.2818032388256606,
            4.70041568384452,
            -2.4885017089457073,
            -3.0281713264177896,
            1.0422857531598517,
            -7.501700216944148,
            -0.845091417266709,
            -6.810940253699232,
            -9.23859524500718,
            -0.007445503647830254,
            -0.8803664903858874,
            6.662400187975305,
            -5.199032309450568,
            -3.6378518194239975,
            0.6969867368546594,
            -11.167949467426848,
            -1.1092965953787077,
            -1.3055072335526043,
            -6.138166709693122,
            3.271727714437,
            4.372572805106734,
            2.2177761997500856,
            -0.25881184114628203,
            8.230558389894403,
            -4.137288092986887,
            -6.934534799785931,
            2.3563435595160414,
            -6.88153095167677,
            -2.5518382239188355,
            -2.695675167978843,
            -1.2280166609466117,
            1.9075731846374453,
            -0.11746664358318676,
            -1.3547159346777984,
            -0.6484728615688997,
            -0.9174335166517539,
            6.715682317809243,
            3.091238437969672,
            1.2320109871038858,
            2.8338586082908868,
            4.776328414870735,
            -3.2775818652738167,
            3.9230463421404282,
            -5.0880920641168474,
            6.32576514460099,
            0.4985621487228671,
            -1.7525725960824503,
            -7.300507852747314,
            -0.21833287372695218,
            -0.35244618037704756,
            3.567506681442899,
            -8.822367194791799,
            4.554771150859376,
            -0.4047137299000329,
            1.814732128745024,
            2.6874433797147437,
            -0.039479719134105196,
            -3.0384471577937733,
            -3.4890037007208647,
            -2.334020619886105,
            -1.5490592077561334,
            -4.540000410058832,
            1.0394343738854048,
            -0.6318315299324959,
            2.4825492298542216,
            -0.7983982077764905,
            2.924938589427896,
            -1.0335931557660603,
            -1.3599640668766466,
            3.336236323461581,
            -0.1183483600296511,
            3.721712426942204,
            1.3891848569281806,
            -1.3019223188633038,
            0.8492547451622843,
            -0.9675469773924874,
            -0.7137320202377557,
            -4.525038715058297,
            -6.032868279258083,
            2.9647554743821534,
            -4.66230506920112,
            -1.3531459740005627,
            -4.779756065432616,
            -2.0224551613585806,
            -7.244308786975344,
            -2.769776034167588,
            -6.556755777729182,
            -0.18760546121376964,
            -5.0421610984167335,
            0.9108678845605874,
            1.295517630750959,
            0.4603495255470007,
            3.417744110427523,
            4.381335856622098,
            -2.8723457649820396,
            -7.700567086592492,
            1.3959353888332613,
            -6.420102570089962,
            1.1200453465690048,
            -3.738029799958136,
            5.514939175186229,
            -5.158514361755431,
            7.7276896050214505,
            -4.046863096409817,
            -7.672410092169752,
            -4.259368300895644,
            2.6337960487821555,
            -5.166931910039867,
            -1.904466977127315,
            -12.445069989066765,
            9.687653068885796,
            -6.031033972447021,
            0.9989347854173566,
            -4.434756696535652,
            -4.902596496578321,
            7.714091331877033,
            3.6543114466992628,
            2.4896417605540107,
            -2.211060286288711,
            -1.2504969156974641,
            6.176790518613793,
            0.43929860094703466,
            -7.054771360231063,
            3.936776816686418,
            5.901224553358194,
            -4.535755352476873,
            4.93573242606566,
            4.882818628209924,
            11.216678063080183,
            0.6819690784248138,
            -1.6053390056713965,
            -0.4680489841556492,
            -2.0268528182722254
          ],
          "numRows": 16,
          "numCols": 16
        }
      },
      "ops": {
        "type": "org.ejml.simple.ops.SimpleOperations_DDRM",
        "data": {}
      }
    },
    {
      "mat": {
        "type": "org.ejml.data.DMatrixRMaj",
        "data": {
          "data": [
            -5.640914678144264,
            -10.657534284899356,
            -4.174789243188794,
            4.865538811545291,
            -3.260757035525092,
            -1.2102252568250544,
            4.565159412920071,
            -0.6045501990421643,
            -3.6374517897717205,
            -7.176032443199736,
            5.804889760608235,
            3.8340784990571803,
            -1.1948893051539131,
            3.684726776198665,
            1.8853230702325772,
            9.978381456378655
          ],
          "numRows": 1,
          "numCols": 16
        }
      },
      "ops": {
        "type": "org.ejml.simple.ops.SimpleOperations_DDRM",
        "data": {}
      }
    }
  ],
  "biases": [
    {
      "mat": {
        "type": "org.ejml.data.DMatrixRMaj",
        "data": {
          "data": [
            0.9834084298321285,
            2.534014243024959,
            0.058942905556837455,
            -4.132845447318715,
            2.2394523196505265,
            8.818848085026568,
            -7.675421189331893,
            -0.6953396536612355,
            4.81640155382914,
            -4.523535444761882,
            1.792242444103464,
            1.4481574911106916,
            -1.1329149189500438,
            -2.079094406118882,
            6.143172590333762,
            2.7636331568580808
          ],
          "numRows": 16,
          "numCols": 1
        }
      },
      "ops": {
        "type": "org.ejml.simple.ops.SimpleOperations_DDRM",
        "data": {}
      }
    },
    {
      "mat": {
        "type": "org.ejml.data.DMatrixRMaj",
        "data": {
          "data": [
            -6.930034519613998,
            4.926241132013724,
            -5.21826595707636,
            -2.544064371894456,
            0.8140254811539772,
            1.4738775118477792,
            3.218154939233906,
            -0.8249985778559401,
            -5.456635337918469,
            3.4376559738798695,
            1.9861493352910582,
            0.630564359814244,
            -1.1658097382595052,
            1.2829253176692923,
            1.2342857419013122,
            3.0066905707287748
          ],
          "numRows": 16,
          "numCols": 1
        }
      },
      "ops": {
        "type": "org.ejml.simple.ops.SimpleOperations_DDRM",
        "data": {}
      }
    },
    {
      "mat": {
        "type": "org.ejml.data.DMatrixRMaj",
        "data": {
          "data": [
            -7.986643647338039
          ],
          "numRows": 1,
          "numCols": 1
        }
      },
      "ops": {
        "type": "org.ejml.simple.ops.SimpleOperations_DDRM",
        "data": {}
      }
    }
  ],
  "learningRate": 0.1,
  "activationFunctionKey": "SIGMOID"
}