{
  "activationFunctionFactory": {
    "activationFunctionMap": {
      "TANH": {
        "type": "basicneuralnetwork.activationfunctions.TanhActivationFunction",
        "data": {}
      },
      "RELU": {
        "type": "basicneuralnetwork.activationfunctions.ReLuActivationFunction",
        "data": {}
      },
      "SIGMOID": {
        "type": "basicneuralnetwork.activationfunctions.SigmoidActivationFunction",
        "data": {}
      }
    }
  },
  "random": {
    "seed": 148246061825195,
    "nextNextGaussian": -0.30004824902158744,
    "haveNextNextGaussian": false
  },
  "inputNodes": 14,
  "hiddenLayers": 2,
  "hiddenNodes": 8,
  "outputNodes": 1,
  "weights": [
    {
      "mat": {
        "type": "org.ejml.data.DMatrixRMaj",
        "data": {
          "data": [
            3.782202474473065,
            3.6496266496466205,
            1.5606151586679786,
            7.127849133993029,
            0.1349781823318461,
            8.056460902915905,
            8.846817479903832,
            -9.146219976735054,
            -8.504991473296982,
            -11.587618133162323,
            -4.200351718455568,
            -4.709841643887356,
            1.4992616501736704,
            0.06332321559844947,
            0.32771418282994064,
            5.798942145858076,
            6.149816946275931,
            -8.92465656745285,
            8.369418909610676,
            -14.692976825045749,
            24.241192377568215,
            -5.623435741499682,
            11.666914236381947,
            16.536697246681335,
            -8.899577682490293,
            -4.435954978475946,
            -5.9686355967671805,
            6.889173456785934,
            -0.5137274718062452,
            16.948145083618837,
            16.334281098976458,
            -3.826737421985405,
            -6.997987862039435,
            -16.6351938678708,
            -4.57582644073359,
            -3.853011694203621,
            8.873472985397855,
            6.948101127380779,
            -2.540775348276325,
            11.324465438694647,
            12.050271233514769,
            -20.78896939535554,
            5.240735548245249,
            -11.161087758052169,
            10.047367621812404,
            -8.97623527986562,
            -5.201200697560791,
            -7.860774116770311,
            1.082785059749954,
            -5.337482910126683,
            -13.009183895804076,
            12.9380413607944,
            -1.9834218057346513,
            20.3732661575246,
            -1.6187875448841005,
            7.344828139161335,
            -3.471437347657775,
            -7.248073707068491,
            -4.705977466494377,
            -4.419046677991224,
            -1.357802653501704,
            0.6487804452325843,
            -14.438776750754167,
            14.851495246051922,
            1.4376581285768881,
            -9.590582057163706,
            2.0357611819387946,
            14.273715451386913,
            8.824810711359262,
            13.288304782130371,
            4.02661739585773,
            2.748850693063675,
            -14.52403342726052,
            5.819584978459224,
            9.24332782979277,
            7.296250463921807,
            12.823798224155116,
            0.7551260705987448,
            1.5535354939852668,
            -12.698245472858947,
            14.296920382197694,
            11.768666403899159,
            0.16211076906702912,
            7.410750262333423,
            -4.42311010684729,
            4.3826083107305704,
            -11.986136522913995,
            -13.994205222151077,
            -3.699702645013708,
            -1.658785958829629,
            21.07112353255903,
            4.442254491533253,
            2.995364975636326,
            -1.907656967383875,
            -11.01149962165062,
            6.632871322763779,
            -5.303726635806372,
            10.346346556161809,
            5.091231094373883,
            -5.873760677360042,
            -11.325027043415028,
            -4.293749219387055,
            3.740979178315076,
            -8.271440287799178,
            -2.5198912253346304,
            -2.2451341315014597,
            0.07785118444021377,
            -2.4848764786701008,
            11.921182128857092,
            13.975419101785532,
            -10.558443216411815,
            3.190740812811586
          ],
          "numRows": 8,
          "numCols": 14
        }
      },
      "ops": {
        "type": "org.ejml.simple.ops.SimpleOperations_DDRM",
        "data": {}
      }
    },
    {
      "mat": {
        "type": "org.ejml.data.DMatrixRMaj",
        "data": {
          "data": [
            -17.30472961861448,
            1.3316679734176629,
            -3.985037559310551,
            0.7102233113437642,
            -22.280224124399886,
            5.669191607580129,
            -9.694576551567991,
            -3.510406137355184,
            4.14494800564402,
            -15.629152645168428,
            -8.583477473978073,
            11.899958332330318,
            0.6445309318048154,
            6.960540639543856,
            -5.463696112298784,
            -4.516123379207899,
            -5.824170065005272,
            2.3176554601755095,
            -3.199511584411155,
            -0.7847842759313223,
            -16.680182189404636,
            -23.697727412508875,
            2.3201473303602835,
            3.2612611564679423,
            6.0520293298723455,
            -15.133083032188091,
            2.9726581249836586,
            -3.325167280141525,
            -4.476064970713274,
            4.069561845420977,
            11.088572072730377,
            11.013911143393841,
            7.174101953279317,
            7.801333516784059,
            -2.2353872339785434,
            -1.4430749866302728,
            5.353794870869836,
            -6.426526627567664,
            -12.326625037700424,
            -5.993770238176397,
            -8.558707256537755,
            11.11541954747106,
            -2.9830441088432837,
            2.724193099494115,
            -15.024113400826009,
            -2.5153504598160414,
            3.6811836835319323,
            20.335242351425574,
            4.191422338064159,
            2.354640427355333,
            -12.192364863292935,
            -5.784944832869066,
            1.9226354605034417,
            -4.415623070480598,
            11.084708423239816,
            -6.789433942084287,
            8.859403935045925,
            0.33547929697074125,
            10.209628543624287,
            20.714873998428885,
            6.950586723057134,
            -12.968053638606046,
            15.031869050904728,
            -20.51121681329391
          ],
          "numRows": 8,
          "numCols": 8
        }
      },
      "ops": {
        "type": "org.ejml.simple.ops.SimpleOperations_DDRM",
        "data": {}
      }
    },
    {
      "mat": {
        "type": "org.ejml.data.DMatrixRMaj",
        "data": {
          "data": [
            -2.9021004217638877,
            -4.009603101185491,
            0.12104561491894894,
            15.365150130443812,
            -8.176090971785433,
            2.7940284796182597,
            6.923146988543265,
            -2.0560244387450943
          ],
          "numRows": 1,
          "numCols": 8
        }
      },
      "ops": {
        "type": "org.ejml.simple.ops.SimpleOperations_DDRM",
        "data": {}
      }
    }
  ],
  "biases": [
    {
      "mat": {
        "type": "org.ejml.data.DMatrixRMaj",
        "data": {
          "data": [
            -8.566871906837816,
            6.380938103076961,
            4.660742657363194,
            -11.032505010736267,
            19.276846598459958,
            -10.930519611178976,
            -5.009831842671459,
            3.122090792584188
          ],
          "numRows": 8,
          "numCols": 1
        }
      },
      "ops": {
        "type": "org.ejml.simple.ops.SimpleOperations_DDRM",
        "data": {}
      }
    },
    {
      "mat": {
        "type": "org.ejml.data.DMatrixRMaj",
        "data": {
          "data": [
            -1.395474133490402,
            -4.315285307614098,
            9.520190071313069,
            1.245623811276202,
            0.6916286076418857,
            -23.01927008200685,
            -7.735193814549968,
            -12.271672691887204
          ],
          "numRows": 8,
          "numCols": 1
        }
      },
      "ops": {
        "type": "org.ejml.simple.ops.SimpleOperations_DDRM",
        "data": {}
      }
    },
    {
      "mat": {
        "type": "org.ejml.data.DMatrixRMaj",
        "data": {
          "data": [
            -4.007780642814465
          ],
          "numRows": 1,
          "numCols": 1
        }
      },
      "ops": {
        "type": "org.ejml.simple.ops.SimpleOperations_DDRM",
        "data": {}
      }
    }
  ],
  "learningRate": 0.1,
  "activationFunctionKey": "SIGMOID"
}