{
  "activationFunctionFactory": {
    "activationFunctionMap": {
      "TANH": {
        "type": "basicneuralnetwork.activationfunctions.TanhActivationFunction",
        "data": {}
      },
      "RELU": {
        "type": "basicneuralnetwork.activationfunctions.ReLuActivationFunction",
        "data": {}
      },
      "SIGMOID": {
        "type": "basicneuralnetwork.activationfunctions.SigmoidActivationFunction",
        "data": {}
      }
    }
  },
  "random": {
    "seed": 227108196676369,
    "nextNextGaussian": -0.4484518012888613,
    "haveNextNextGaussian": false
  },
  "inputNodes": 17,
  "hiddenLayers": 2,
  "hiddenNodes": 16,
  "outputNodes": 2,
  "weights": [
    {
      "mat": {
        "type": "org.ejml.data.DMatrixRMaj",
        "data": {
          "data": [
            2.06589647014504,
            3.8250737149652725,
            -1.0724102718888984,
            3.844874960299501,
            -1.916269388258927,
            1.6209603116217028,
            -2.3151144081091926,
            -1.7739152773816351,
            -3.0910830435482906,
            -4.605468459027983,
            -2.917225847279027,
            2.1621458040372215,
            1.8530277945921347,
            6.14588066169317,
            -1.8893982675952516,
            2.71460770686917,
            0.7434302154064024,
            6.106698435577628,
            -7.570519538705728,
            1.2306491253385345,
            1.6636811845698622,
            0.11826272982292929,
            -0.4817341327569812,
            2.3399116694415545,
            2.6304082896412657,
            -1.3251201645848112,
            3.0987434993227563,
            -5.126378575259557,
            0.8177755885522366,
            3.2070304700706718,
            6.008449561974717,
            4.694042323954648,
            -1.4951256414506169,
            3.7378309461300634,
            -4.688583862218925,
            -1.5761588189459719,
            -3.2037800360319757,
            3.3451465270805327,
            -2.721682956617336,
            3.1340333974713213,
            -1.110036466302326,
            -2.2577464414021864,
            -0.8746289786619845,
            -3.423392403528945,
            -0.9662371057009247,
            -3.7932771398907956,
            0.8888687392009439,
            -4.595690665287231,
            1.3984800585876298,
            0.34040812689313993,
            3.782838026800065,
            5.841151536427194,
            3.110332919517949,
            -1.7159345821809295,
            -7.199512618216365,
            2.02132089110999,
            1.394850950356275,
            1.0908038765710584,
            -0.33138139007106693,
            -3.4851290824568832,
            6.877265977665692,
            1.1005995201310208,
            -0.08968563616918179,
            -7.589296073471916,
            -2.244302147117926,
            -0.9630698913588883,
            -5.425238365780139,
            0.8609452660617088,
            0.1257822411744744,
            -4.245121849399213,
            5.185907109909907,
            -2.880309216317718,
            -8.929629360990901,
            4.1354794746037555,
            6.7682095124460595,
            -6.756443854885486,
            4.084565794721483,
            -2.5877104247836478,
            1.221710026367246,
            3.5611191136208324,
            3.126856229901165,
            -7.975491076408262,
            2.705050659138072,
            8.825163714205996,
            -2.821418339512346,
            5.605651150979438,
            9.381596675104403,
            2.8172398885141576,
            1.1838052447812315,
            9.960270595100438,
            -2.8190646829046146,
            6.610697816940967,
            -1.0363749225937977,
            0.9051917160775326,
            -2.8006174870341165,
            5.8070490260557905,
            1.223991130582116,
            -3.5960161956820316,
            2.7606125870374467,
            2.6015433320961385,
            -2.6615722355003357,
            3.3111099618416477,
            -5.933709504069042,
            -5.351299583233741,
            5.141098222818304,
            1.646980732151782,
            3.1894761550124815,
            2.8294501440162163,
            1.5986930314361423,
            -3.9054731466584953,
            -1.1278313137469427,
            -1.267937972577655,
            -1.7308314917891807,
            -1.6825832264908218,
            -2.7123032987955575,
            -0.8501844187231195,
            3.3188509253069296,
            -1.0558505301707641,
            -1.244734713347365,
            -0.24047743971163715,
            0.2554622700693922,
            -8.93165082434357,
            2.717954830268877,
            -2.4233428535888697,
            1.5043748455987749,
            4.524589561828051,
            1.5420902208921234,
            -8.423051125402823,
            1.3840133102773138,
            -2.480844028850145,
            -2.1694755582958885,
            -1.905093850298163,
            -0.1254894782298709,
            -0.8880310314028672,
            4.816287979171414,
            4.017885753977339,
            -0.12505879437834455,
            -1.1611348146643772,
            -6.071289321557201,
            2.3485670017386013,
            5.48517309323905,
            2.279594720383266,
            8.87058473388831,
            -5.05795163159008,
            4.085569916169533,
            6.744490542144932,
            1.6866129597658528,
            1.1659862594748385,
            1.9719852012903885,
            -6.308635064268069,
            -5.465616898513746,
            4.9029166259021775,
            -9.518146823401059,
            1.5633542972695955,
            -4.353149395288522,
            2.909425116548777,
            -1.622319193306503,
            -3.1568339307235966,
            10.66559984248869,
            -3.865805389329823,
            -4.331251959714532,
            2.9233495102572586,
            -3.9210356134548707,
            6.5611127841927575,
            -5.290539664980095,
            -0.011984868543885814,
            -1.0209149881739208,
            -0.20197215933297574,
            3.420388878874098,
            -3.929963925296801,
            -4.333554771100291,
            6.386841324377748,
            -8.104855611889656,
            -4.0590124494106,
            4.854437252959465,
            3.5015632694800356,
            0.13604951554318392,
            6.680124145406868,
            8.708644693105638,
            5.803546261807009,
            7.584068375803282,
            -7.575401213960609,
            4.728390727538376,
            1.876114436584268,
            1.9556372402262063,
            -2.937566772695101,
            2.9159409473352866,
            -2.9303265483727965,
            -0.8136355525315909,
            -7.5714106559018655,
            1.5773670977676724,
            -0.6006982586152544,
            -6.516957447640979,
            2.547270777296135,
            -4.440842509612915,
            -0.6713288636501444,
            6.568055479232499,
            0.6098494023620915,
            -0.6939376766959455,
            2.4312948929092677,
            -0.8638438198160461,
            -1.436705252336666,
            2.3867178306796504,
            -5.566219367379061,
            -6.12848941994724,
            -3.6439860743206234,
            5.216585956714367,
            5.0315557134477675,
            -1.3999347391484351,
            1.2618649295570077,
            3.3325730999860355,
            2.6029584364995526,
            11.508401377523276,
            -2.1061339105400254,
            -4.455282193265232,
            4.306737909164431,
            -2.117144075044473,
            0.8110798229338734,
            2.101248624861212,
            -1.0285442009943342,
            -0.08515107920593129,
            2.4518848775022786,
            0.30849875928594817,
            3.433967983477071,
            -1.562626140533692,
            -5.387709339841253,
            -5.581172537231438,
            -8.778041896377133,
            8.190080558906626,
            2.095164222448832,
            7.77046659023792,
            4.173833064736964,
            -4.6873983470874725,
            0.48785480354158195,
            0.19879017785563613,
            3.3955434016442068,
            0.6033285769914773,
            -7.3817390219932895,
            5.03723066660564,
            -1.0831531041982947,
            1.001576073509606,
            3.9398626074821483,
            3.1294836140721722,
            -2.5660846298159594,
            0.23767970513130648,
            3.984345835014658,
            -5.394524837247665,
            -4.209681837620455,
            -1.5934946994918318,
            -1.0172175830787293,
            1.599959864755533,
            5.965907581157391,
            0.4345678579360438,
            -8.24307234108551,
            3.233238178698854,
            0.2926891806387273,
            7.473135447585177,
            4.249005228450416,
            -4.378332214993223,
            -2.9550142262698063,
            4.692910983021059,
            4.611554268711957,
            5.12646544177539,
            -5.6386237653219045,
            -1.6204786380627112,
            4.401210531957835,
            -1.0522123361970745,
            -2.463198754413402,
            -1.047784031283615,
            -5.255822157046316,
            0.5911184404856717,
            1.661616548159493
          ],
          "numRows": 16,
          "numCols": 17
        }
      },
      "ops": {
        "type": "org.ejml.simple.ops.SimpleOperations_DDRM",
        "data": {}
      }
    },
    {
      "mat": {
        "type": "org.ejml.data.DMatrixRMaj",
        "data": {
          "data": [
            0.5518643920215465,
            2.472417635000544,
            3.3055168996233544,
            1.2607804082054224,
            -4.229913243333439,
            -2.469048087042095,
            -11.917914439161216,
            2.8774870832854855,
            5.493123155390614,
            0.9913744539789402,
            -1.8762027242334365,
            -3.1996763876250705,
            -2.3699642918376167,
            -2.542217631849655,
            1.289310284704341,
            -0.924041293170043,
            6.125322745799722,
            0.5536015583838083,
            -3.9256609782623224,
            1.2006178127446416,
            8.322563808558096,
            -4.693932913636198,
            -0.5273970425478429,
            2.6286660095789465,
            -3.9593057099688975,
            -0.8078178705828497,
            6.05195830183297,
            1.7408320314855092,
            4.632965021600203,
            1.282745558143412,
            1.0574834315105601,
            -0.5181864958598474,
            -2.3404888147386056,
            5.3791858190343245,
            2.8653367748135263,
            0.6665556128727379,
            2.345134919551474,
            5.787206516728383,
            1.6756007551787224,
            0.28520162622567413,
            -1.1248985069806332,
            1.8177609958731864,
            0.15649407231199589,
            3.4427005284830363,
            -1.2876791317488379,
            4.253263742202779,
            -7.1048479810783896,
            -1.2721324680059811,
            -0.993657694631032,
            3.982060477774504,
            -5.306358089968521,
            3.0226619902417835,
            -1.359125148751274,
            -1.4230123970054707,
            0.657774401322543,
            1.4450229789225586,
            -2.5266705103886973,
            5.264768883678253,
            3.231223608787312,
            0.29950428634435355,
            4.660943256739493,
            -1.8230729820879135,
            -6.740234579575999,
            -0.614479345554312,
            -3.3457703955877727,
            -7.920118601717321,
            3.413917889119873,
            2.1251485863869095,
            -7.124681293669882,
            0.3564672413843196,
            1.1139157221115368,
            1.7116887955323201,
            4.5242805434320355,
            -0.46070705813440693,
            -4.03319259045079,
            -1.7509131790336658,
            -3.7649392479174093,
            0.6578882321431572,
            -13.166966693502744,
            3.0627470797442107,
            -7.376465286403748,
            7.687918841150002,
            4.584005513812832,
            0.4433187483923722,
            -3.2335908614935756,
            0.2842361984080294,
            -4.117746772611317,
            -6.794358015575329,
            -0.8209362397654817,
            -10.65401166274625,
            4.817379037802441,
            -4.599084231869717,
            -3.7816847377349476,
            0.8208350542530006,
            1.0760876546708746,
            4.727721980661952,
            -1.0652148039228204,
            3.9796820450088273,
            8.586865954693215,
            -3.0792738730611493,
            -2.0837243065193536,
            -5.288272363937358,
            -1.5059392984999946,
            -0.33101299394780326,
            -6.742885709273227,
            -6.130164746633476,
            8.151844162691347,
            -6.189585451179247,
            -5.522284312944437,
            2.342552094703793,
            4.654219927568199,
            7.993721943578263,
            -3.3263427656901827,
            8.990272839883593,
            -5.645138322652443,
            -2.0748391794675327,
            -1.435832885518055,
            1.996527577117683,
            -1.8814352728266366,
            -3.896355874992689,
            1.7694624554248677,
            -7.430578212040928,
            0.2554390068889955,
            1.8884930469372816,
            -4.010156635738116,
            -6.6669657915787335,
            -2.3227286552088042,
            -1.324677765216236,
            1.4146651544079667,
            1.6199298438740883,
            2.6023791978241126,
            -9.319991760778306,
            -4.872351431692821,
            1.22665901209818,
            -4.269361424881668,
            -1.3403959804771473,
            1.0836731043934908,
            -11.930826036665046,
            -4.072098635140425,
            3.1890488717112757,
            1.71601794967727,
            -0.9244553453230936,
            -7.062948588421766,
            3.6506514879148466,
            0.3101405189911999,
            -3.8498296715652938,
            -0.37193075295490574,
            10.830630399218496,
            1.5078866377026803,
            -4.694877808014967,
            -0.8813390561709897,
            -7.728096115941955,
            8.530570089236118,
            -4.035757105841747,
            -5.598477797806772,
            -2.419546675428418,
            5.44396235994745,
            -2.742477090783856,
            1.9203714554911553,
            -2.0670256948799066,
            2.427537365048311,
            -4.073141268060929,
            -0.7638191740185716,
            2.2821396287763998,
            -0.6269589365916499,
            1.5826137931902793,
            -1.7531089900020305,
            -5.715515945809445,
            -2.1044609385113597,
            -0.7611528112722868,
            7.414624972220546,
            0.5629396167231273,
            2.164609141652287,
            0.42168746454419626,
            -4.357652349073619,
            -1.735133483417551,
            -1.9754516839174285,
            7.350761785994554,
            3.2134301443904087,
            -5.82419924139922,
            -0.7293301421394882,
            -8.091623510360696,
            -5.384869089685556,
            3.7058433126875103,
            -7.098218038721335,
            -9.204380444614507,
            -4.250266561392143,
            -0.6928937039959586,
            -0.07784957699349926,
            -4.494698256457734,
            -4.2106301486169,
            -3.9908594069070413,
            4.191427078975089,
            8.138298930643066,
            -3.498937085119171,
            0.27784311382602406,
            -7.7057390466069355,
            3.7915701525131293,
            3.5080264653107984,
            -2.2590963277919967,
            5.765312871517736,
            -3.1935045738610306,
            -1.8470820301614759,
            0.4640336155969862,
            -7.147457539441147,
            -5.739753897482918,
            -12.802750491388172,
            -2.050986789431072,
            -3.432340741744947,
            0.47261540045763184,
            3.8241388572968105,
            0.6866201820753902,
            3.2974745636891023,
            4.402127245212474,
            3.161986757351224,
            -1.6246152238068285,
            -3.104169263590196,
            0.6531190413394325,
            1.1307123818691767,
            -0.642699251250363,
            -4.431707671976885,
            -0.3138740952821631,
            -0.8738104648037086,
            5.722979451796387,
            4.280955841953233,
            -1.894736624100111,
            -3.5174639000260117,
            -0.03704938630436831,
            3.601902599657653,
            -3.9532113474768926,
            -0.30969451677806653,
            7.439392628336162,
            -6.856321730534809,
            -0.317833562529401,
            -0.31989867808549977,
            -1.036621501170861,
            -5.067319397120275,
            4.394821315675561,
            5.276618572733418,
            -0.31396650575237595,
            0.5815342054696476,
            -7.806292408925494,
            -1.9273131627807711,
            0.8813125702354725,
            2.5143564331251222,
            -0.28733348170635636,
            1.5946521502867825,
            -4.0209385764012895,
            -1.6843465161697402,
            -1.669930159134077,
            -6.826293198569786,
            -8.303726774369999,
            -7.180594567866693,
            7.278332836894789,
            -0.7699478210501698,
            -4.0537365275095825
          ],
          "numRows": 16,
          "numCols": 16
        }
      },
      "ops": {
        "type": "org.ejml.simple.ops.SimpleOperations_DDRM",
        "data": {}
      }
    },
    {
      "mat": {
        "type": "org.ejml.data.DMatrixRMaj",
        "data": {
          "data": [
            1.0701140986158793,
            -9.491244497213803,
            1.3258834378690842,
            -4.026302514718277,
            3.1792964903482783,
            -4.335848046905176,
            6.750265572370128,
            0.35731856917351335,
            -5.092918406448913,
            8.006061615169237,
            1.5323631302029916,
            5.059501856994477,
            2.805677435561992,
            -1.579798535165491,
            -0.08885479154117859,
            -7.932848039812688,
            1.784017192194466,
            -12.846954982620755,
            -3.796216469635805,
            -3.5902130741469183,
            5.921560404836073,
            5.484916130461672,
            -4.529178366632253,
            -3.023005364071994,
            3.8697364023742176,
            -2.6576533247017236,
            -1.5309782471284665,
            -1.413473005444209,
            0.8790266323366742,
            -2.7334109975821295,
            -3.146030881467253,
            0.03270688183924042
          ],
          "numRows": 2,
          "numCols": 16
        }
      },
      "ops": {
        "type": "org.ejml.simple.ops.SimpleOperations_DDRM",
        "data": {}
      }
    }
  ],
  "biases": [
    {
      "mat": {
        "type": "org.ejml.data.DMatrixRMaj",
        "data": {
          "data": [
            2.390298912145115,
            0.797867054052958,
            -7.2562334055262685,
            -0.7472413596164553,
            -2.7822683843709495,
            10.350249625768338,
            -3.7249383291960787,
            5.659760210888955,
            5.075150065487114,
            -2.2869768860355135,
            -1.6254863250802998,
            3.1604128732268406,
            6.804281412927326,
            2.015393408325832,
            -1.405380502334013,
            1.1133751919192114
          ],
          "numRows": 16,
          "numCols": 1
        }
      },
      "ops": {
        "type": "org.ejml.simple.ops.SimpleOperations_DDRM",
        "data": {}
      }
    },
    {
      "mat": {
        "type": "org.ejml.data.DMatrixRMaj",
        "data": {
          "data": [
            5.33370502806297,
            -8.835917141388695,
            0.2892702929380968,
            -1.8305034422779887,
            -0.158106671440021,
            3.5678199508153545,
            3.9815992057588234,
            4.6077578127131495,
            -4.335941836823956,
            1.4696122023055718,
            1.0697293196973054,
            5.9313157835032895,
            5.864587940673391,
            0.11948886348058037,
            0.6994765706865044,
            -0.30126287490833836
          ],
          "numRows": 16,
          "numCols": 1
        }
      },
      "ops": {
        "type": "org.ejml.simple.ops.SimpleOperations_DDRM",
        "data": {}
      }
    },
    {
      "mat": {
        "type": "org.ejml.data.DMatrixRMaj",
        "data": {
          "data": [
            2.2150960468860785,
            1.3015318491841208
          ],
          "numRows": 2,
          "numCols": 1
        }
      },
      "ops": {
        "type": "org.ejml.simple.ops.SimpleOperations_DDRM",
        "data": {}
      }
    }
  ],
  "learningRate": 0.1,
  "activationFunctionKey": "SIGMOID"
}